digraph Tree {
node [shape=box, style="filled, rounded", color="black", fontname=helvetica] ;
edge [fontname=helvetica] ;
0 [label="petal length (cm) <= 2.35\ngini = 0.67\nsamples = 97\nvalue = [48, 50, 52]\nclass = virginica", fillcolor="#fcfbfe"] ;
1 [label="gini = 0.0\nsamples = 34\nvalue = [48, 0, 0]\nclass = setosa", fillcolor="#e58139"] ;
0 -> 1 [labeldistance=2.5, labelangle=45, headlabel="True"] ;
2 [label="sepal length (cm) <= 5.75\ngini = 0.5\nsamples = 63\nvalue = [0, 50, 52]\nclass = virginica", fillcolor="#faf7fe"] ;
0 -> 2 [labeldistance=2.5, labelangle=-45, headlabel="False"] ;
3 [label="gini = 0.0\nsamples = 14\nvalue = [0, 18, 0]\nclass = versicolor", fillcolor="#39e581"] ;
2 -> 3 ;
4 [label="petal width (cm) <= 1.7\ngini = 0.47\nsamples = 49\nvalue = [0, 32, 52]\nclass = virginica", fillcolor="#cfb3f5"] ;
2 -> 4 ;
5 [label="petal length (cm) <= 5.0\ngini = 0.24\nsamples = 21\nvalue = [0, 31, 5]\nclass = versicolor", fillcolor="#59e995"] ;
4 -> 5 ;
6 [label="gini = 0.0\nsamples = 18\nvalue = [0, 31, 0]\nclass = versicolor", fillcolor="#39e581"] ;
5 -> 6 ;
7 [label="gini = 0.0\nsamples = 3\nvalue = [0, 0, 5]\nclass = virginica", fillcolor="#8139e5"] ;
5 -> 7 ;
8 [label="petal length (cm) <= 4.85\ngini = 0.04\nsamples = 28\nvalue = [0, 1, 47]\nclass = virginica", fillcolor="#843de6"] ;
4 -> 8 ;
9 [label="sepal width (cm) <= 3.1\ngini = 0.38\nsamples = 3\nvalue = [0, 1, 3]\nclass = virginica", fillcolor="#ab7bee"] ;
8 -> 9 ;
10 [label="gini = 0.0\nsamples = 2\nvalue = [0, 0, 3]\nclass = virginica", fillcolor="#8139e5"] ;
9 -> 10 ;
11 [label="gini = 0.0\nsamples = 1\nvalue = [0, 1, 0]\nclass = versicolor", fillcolor="#39e581"] ;
9 -> 11 ;
12 [label="gini = 0.0\nsamples = 25\nvalue = [0, 0, 44]\nclass = virginica", fillcolor="#8139e5"] ;
8 -> 12 ;
}